digraph Tree {
node [shape=box] ;
0 [label="X[0] <= -0.999\ngini = 0.489\nsamples = 2500\nvalue = [1433, 1067]"] ;
1 [label="X[1] <= -3.555\ngini = 0.391\nsamples = 901\nvalue = [240, 661]"] ;
0 -> 1 [labeldistance=2.5, labelangle=45, headlabel="True"] ;
2 [label="X[1] <= -3.68\ngini = 0.215\nsamples = 49\nvalue = [43, 6]"] ;
1 -> 2 ;
3 [label="gini = 0.0\nsamples = 34\nvalue = [34, 0]"] ;
2 -> 3 ;
4 [label="X[0] <= -2.62\ngini = 0.48\nsamples = 15\nvalue = [9, 6]"] ;
2 -> 4 ;
5 [label="gini = 0.0\nsamples = 6\nvalue = [6, 0]"] ;
4 -> 5 ;
6 [label="X[0] <= -1.394\ngini = 0.444\nsamples = 9\nvalue = [3, 6]"] ;
4 -> 6 ;
7 [label="gini = 0.0\nsamples = 6\nvalue = [0, 6]"] ;
6 -> 7 ;
8 [label="gini = 0.0\nsamples = 3\nvalue = [3, 0]"] ;
6 -> 8 ;
9 [label="X[0] <= -3.614\ngini = 0.356\nsamples = 852\nvalue = [197, 655]"] ;
1 -> 9 ;
10 [label="X[1] <= 0.126\ngini = 0.499\nsamples = 109\nvalue = [57, 52]"] ;
9 -> 10 ;
11 [label="X[0] <= -3.635\ngini = 0.068\nsamples = 57\nvalue = [55, 2]"] ;
10 -> 11 ;
12 [label="X[0] <= -3.704\ngini = 0.036\nsamples = 54\nvalue = [53, 1]"] ;
11 -> 12 ;
13 [label="gini = 0.0\nsamples = 37\nvalue = [37, 0]"] ;
12 -> 13 ;
14 [label="X[0] <= -3.695\ngini = 0.111\nsamples = 17\nvalue = [16, 1]"] ;
12 -> 14 ;
15 [label="gini = 0.0\nsamples = 1\nvalue = [0, 1]"] ;
14 -> 15 ;
16 [label="gini = 0.0\nsamples = 16\nvalue = [16, 0]"] ;
14 -> 16 ;
17 [label="X[0] <= -3.631\ngini = 0.444\nsamples = 3\nvalue = [2, 1]"] ;
11 -> 17 ;
18 [label="gini = 0.0\nsamples = 1\nvalue = [0, 1]"] ;
17 -> 18 ;
19 [label="gini = 0.0\nsamples = 2\nvalue = [2, 0]"] ;
17 -> 19 ;
20 [label="X[1] <= 3.728\ngini = 0.074\nsamples = 52\nvalue = [2, 50]"] ;
10 -> 20 ;
21 [label="gini = 0.0\nsamples = 50\nvalue = [0, 50]"] ;
20 -> 21 ;
22 [label="gini = 0.0\nsamples = 2\nvalue = [2, 0]"] ;
20 -> 22 ;
23 [label="X[1] <= -0.846\ngini = 0.306\nsamples = 743\nvalue = [140, 603]"] ;
9 -> 23 ;
24 [label="X[0] <= -3.383\ngini = 0.086\nsamples = 268\nvalue = [12, 256]"] ;
23 -> 24 ;
25 [label="X[1] <= -2.806\ngini = 0.484\nsamples = 17\nvalue = [10, 7]"] ;
24 -> 25 ;
26 [label="gini = 0.0\nsamples = 9\nvalue = [9, 0]"] ;
25 -> 26 ;
27 [label="X[1] <= -1.274\ngini = 0.219\nsamples = 8\nvalue = [1, 7]"] ;
25 -> 27 ;
28 [label="gini = 0.0\nsamples = 7\nvalue = [0, 7]"] ;
27 -> 28 ;
29 [label="gini = 0.0\nsamples = 1\nvalue = [1, 0]"] ;
27 -> 29 ;
30 [label="X[1] <= -3.303\ngini = 0.016\nsamples = 251\nvalue = [2, 249]"] ;
24 -> 30 ;
31 [label="X[0] <= -3.0\ngini = 0.153\nsamples = 24\nvalue = [2, 22]"] ;
30 -> 31 ;
32 [label="gini = 0.0\nsamples = 2\nvalue = [2, 0]"] ;
31 -> 32 ;
33 [label="gini = 0.0\nsamples = 22\nvalue = [0, 22]"] ;
31 -> 33 ;
34 [label="gini = 0.0\nsamples = 227\nvalue = [0, 227]"] ;
30 -> 34 ;
35 [label="X[1] <= 0.258\ngini = 0.394\nsamples = 475\nvalue = [128, 347]"] ;
23 -> 35 ;
36 [label="X[1] <= -0.44\ngini = 0.465\nsamples = 109\nvalue = [69, 40]"] ;
35 -> 36 ;
37 [label="X[0] <= -3.025\ngini = 0.404\nsamples = 32\nvalue = [9, 23]"] ;
36 -> 37 ;
38 [label="gini = 0.0\nsamples = 9\nvalue = [9, 0]"] ;
37 -> 38 ;
39 [label="gini = 0.0\nsamples = 23\nvalue = [0, 23]"] ;
37 -> 39 ;
40 [label="X[1] <= 0.008\ngini = 0.344\nsamples = 77\nvalue = [60, 17]"] ;
36 -> 40 ;
41 [label="X[1] <= -0.269\ngini = 0.226\nsamples = 54\nvalue = [47, 7]"] ;
40 -> 41 ;
42 [label="X[0] <= -2.629\ngini = 0.465\nsamples = 19\nvalue = [12, 7]"] ;
41 -> 42 ;
43 [label="gini = 0.0\nsamples = 9\nvalue = [9, 0]"] ;
42 -> 43 ;
44 [label="X[0] <= -1.511\ngini = 0.42\nsamples = 10\nvalue = [3, 7]"] ;
42 -> 44 ;
45 [label="gini = 0.0\nsamples = 7\nvalue = [0, 7]"] ;
44 -> 45 ;
46 [label="gini = 0.0\nsamples = 3\nvalue = [3, 0]"] ;
44 -> 46 ;
47 [label="gini = 0.0\nsamples = 35\nvalue = [35, 0]"] ;
41 -> 47 ;
48 [label="X[0] <= -2.27\ngini = 0.491\nsamples = 23\nvalue = [13, 10]"] ;
40 -> 48 ;
49 [label="X[1] <= 0.031\ngini = 0.165\nsamples = 11\nvalue = [1, 10]"] ;
48 -> 49 ;
50 [label="X[1] <= 0.021\ngini = 0.5\nsamples = 2\nvalue = [1, 1]"] ;
49 -> 50 ;
51 [label="gini = 0.0\nsamples = 1\nvalue = [0, 1]"] ;
50 -> 51 ;
52 [label="gini = 0.0\nsamples = 1\nvalue = [1, 0]"] ;
50 -> 52 ;
53 [label="gini = 0.0\nsamples = 9\nvalue = [0, 9]"] ;
49 -> 53 ;
54 [label="gini = 0.0\nsamples = 12\nvalue = [12, 0]"] ;
48 -> 54 ;
55 [label="X[0] <= -1.561\ngini = 0.27\nsamples = 366\nvalue = [59, 307]"] ;
35 -> 55 ;
56 [label="X[1] <= 3.792\ngini = 0.09\nsamples = 275\nvalue = [13, 262]"] ;
55 -> 56 ;
57 [label="X[1] <= 0.383\ngini = 0.037\nsamples = 263\nvalue = [5, 258]"] ;
56 -> 57 ;
58 [label="X[0] <= -1.746\ngini = 0.291\nsamples = 17\nvalue = [3, 14]"] ;
57 -> 58 ;
59 [label="X[0] <= -1.938\ngini = 0.124\nsamples = 15\nvalue = [1, 14]"] ;
58 -> 59 ;
60 [label="gini = 0.0\nsamples = 12\nvalue = [0, 12]"] ;
59 -> 60 ;
61 [label="X[1] <= 0.364\ngini = 0.444\nsamples = 3\nvalue = [1, 2]"] ;
59 -> 61 ;
62 [label="gini = 0.0\nsamples = 1\nvalue = [1, 0]"] ;
61 -> 62 ;
63 [label="gini = 0.0\nsamples = 2\nvalue = [0, 2]"] ;
61 -> 63 ;
64 [label="gini = 0.0\nsamples = 2\nvalue = [2, 0]"] ;
58 -> 64 ;
65 [label="X[1] <= 3.621\ngini = 0.016\nsamples = 246\nvalue = [2, 244]"] ;
57 -> 65 ;
66 [label="gini = 0.0\nsamples = 231\nvalue = [0, 231]"] ;
65 -> 66 ;
67 [label="X[0] <= -1.904\ngini = 0.231\nsamples = 15\nvalue = [2, 13]"] ;
65 -> 67 ;
68 [label="gini = 0.0\nsamples = 13\nvalue = [0, 13]"] ;
67 -> 68 ;
69 [label="gini = 0.0\nsamples = 2\nvalue = [2, 0]"] ;
67 -> 69 ;
70 [label="X[0] <= -2.279\ngini = 0.444\nsamples = 12\nvalue = [8, 4]"] ;
56 -> 70 ;
71 [label="gini = 0.0\nsamples = 4\nvalue = [0, 4]"] ;
70 -> 71 ;
72 [label="gini = 0.0\nsamples = 8\nvalue = [8, 0]"] ;
70 -> 72 ;
73 [label="X[1] <= 3.01\ngini = 0.5\nsamples = 91\nvalue = [46, 45]"] ;
55 -> 73 ;
74 [label="X[1] <= 1.124\ngini = 0.448\nsamples = 65\nvalue = [22, 43]"] ;
73 -> 74 ;
75 [label="X[0] <= -1.422\ngini = 0.32\nsamples = 25\nvalue = [20, 5]"] ;
74 -> 75 ;
76 [label="X[1] <= 0.603\ngini = 0.494\nsamples = 9\nvalue = [4, 5]"] ;
75 -> 76 ;
77 [label="gini = 0.0\nsamples = 4\nvalue = [4, 0]"] ;
76 -> 77 ;
78 [label="gini = 0.0\nsamples = 5\nvalue = [0, 5]"] ;
76 -> 78 ;
79 [label="gini = 0.0\nsamples = 16\nvalue = [16, 0]"] ;
75 -> 79 ;
80 [label="X[0] <= -1.024\ngini = 0.095\nsamples = 40\nvalue = [2, 38]"] ;
74 -> 80 ;
81 [label="X[1] <= 1.269\ngini = 0.05\nsamples = 39\nvalue = [1, 38]"] ;
80 -> 81 ;
82 [label="X[1] <= 1.262\ngini = 0.32\nsamples = 5\nvalue = [1, 4]"] ;
81 -> 82 ;
83 [label="gini = 0.0\nsamples = 4\nvalue = [0, 4]"] ;
82 -> 83 ;
84 [label="gini = 0.0\nsamples = 1\nvalue = [1, 0]"] ;
82 -> 84 ;
85 [label="gini = 0.0\nsamples = 34\nvalue = [0, 34]"] ;
81 -> 85 ;
86 [label="gini = 0.0\nsamples = 1\nvalue = [1, 0]"] ;
80 -> 86 ;
87 [label="X[1] <= 3.332\ngini = 0.142\nsamples = 26\nvalue = [24, 2]"] ;
73 -> 87 ;
88 [label="X[0] <= -1.316\ngini = 0.408\nsamples = 7\nvalue = [5, 2]"] ;
87 -> 88 ;
89 [label="gini = 0.0\nsamples = 2\nvalue = [0, 2]"] ;
88 -> 89 ;
90 [label="gini = 0.0\nsamples = 5\nvalue = [5, 0]"] ;
88 -> 90 ;
91 [label="gini = 0.0\nsamples = 19\nvalue = [19, 0]"] ;
87 -> 91 ;
92 [label="X[1] <= -1.616\ngini = 0.379\nsamples = 1599\nvalue = [1193, 406]"] ;
0 -> 92 [labeldistance=2.5, labelangle=-45, headlabel="False"] ;
93 [label="X[0] <= 1.748\ngini = 0.499\nsamples = 502\nvalue = [238, 264]"] ;
92 -> 93 ;
94 [label="X[0] <= -0.424\ngini = 0.272\nsamples = 265\nvalue = [222, 43]"] ;
93 -> 94 ;
95 [label="X[1] <= -3.365\ngini = 0.436\nsamples = 53\nvalue = [17, 36]"] ;
94 -> 95 ;
96 [label="gini = 0.0\nsamples = 16\nvalue = [16, 0]"] ;
95 -> 96 ;
97 [label="X[0] <= -0.539\ngini = 0.053\nsamples = 37\nvalue = [1, 36]"] ;
95 -> 97 ;
98 [label="gini = 0.0\nsamples = 32\nvalue = [0, 32]"] ;
97 -> 98 ;
99 [label="X[0] <= -0.509\ngini = 0.32\nsamples = 5\nvalue = [1, 4]"] ;
97 -> 99 ;
100 [label="gini = 0.0\nsamples = 1\nvalue = [1, 0]"] ;
99 -> 100 ;
101 [label="gini = 0.0\nsamples = 4\nvalue = [0, 4]"] ;
99 -> 101 ;
102 [label="X[0] <= 1.617\ngini = 0.064\nsamples = 212\nvalue = [205, 7]"] ;
94 -> 102 ;
103 [label="X[0] <= -0.287\ngini = 0.01\nsamples = 195\nvalue = [194, 1]"] ;
102 -> 103 ;
104 [label="X[0] <= -0.295\ngini = 0.198\nsamples = 9\nvalue = [8, 1]"] ;
103 -> 104 ;
105 [label="gini = 0.0\nsamples = 8\nvalue = [8, 0]"] ;
104 -> 105 ;
106 [label="gini = 0.0\nsamples = 1\nvalue = [0, 1]"] ;
104 -> 106 ;
107 [label="gini = 0.0\nsamples = 186\nvalue = [186, 0]"] ;
103 -> 107 ;
108 [label="X[1] <= -3.6\ngini = 0.457\nsamples = 17\nvalue = [11, 6]"] ;
102 -> 108 ;
109 [label="gini = 0.0\nsamples = 7\nvalue = [7, 0]"] ;
108 -> 109 ;
110 [label="X[1] <= -2.533\ngini = 0.48\nsamples = 10\nvalue = [4, 6]"] ;
108 -> 110 ;
111 [label="gini = 0.0\nsamples = 6\nvalue = [0, 6]"] ;
110 -> 111 ;
112 [label="gini = 0.0\nsamples = 4\nvalue = [4, 0]"] ;
110 -> 112 ;
113 [label="X[1] <= -1.94\ngini = 0.126\nsamples = 237\nvalue = [16, 221]"] ;
93 -> 113 ;
114 [label="X[0] <= 1.872\ngini = 0.056\nsamples = 210\nvalue = [6, 204]"] ;
113 -> 114 ;
115 [label="X[1] <= -3.667\ngini = 0.444\nsamples = 18\nvalue = [6, 12]"] ;
114 -> 115 ;
116 [label="gini = 0.0\nsamples = 3\nvalue = [3, 0]"] ;
115 -> 116 ;
117 [label="X[1] <= -2.247\ngini = 0.32\nsamples = 15\nvalue = [3, 12]"] ;
115 -> 117 ;
118 [label="gini = 0.0\nsamples = 12\nvalue = [0, 12]"] ;
117 -> 118 ;
119 [label="gini = 0.0\nsamples = 3\nvalue = [3, 0]"] ;
117 -> 119 ;
120 [label="gini = 0.0\nsamples = 192\nvalue = [0, 192]"] ;
114 -> 120 ;
121 [label="X[0] <= 2.164\ngini = 0.466\nsamples = 27\nvalue = [10, 17]"] ;
113 -> 121 ;
122 [label="gini = 0.0\nsamples = 7\nvalue = [7, 0]"] ;
121 -> 122 ;
123 [label="X[0] <= 2.27\ngini = 0.255\nsamples = 20\nvalue = [3, 17]"] ;
121 -> 123 ;
124 [label="X[1] <= -1.833\ngini = 0.5\nsamples = 4\nvalue = [2, 2]"] ;
123 -> 124 ;
125 [label="gini = 0.0\nsamples = 2\nvalue = [0, 2]"] ;
124 -> 125 ;
126 [label="gini = 0.0\nsamples = 2\nvalue = [2, 0]"] ;
124 -> 126 ;
127 [label="X[0] <= 3.539\ngini = 0.117\nsamples = 16\nvalue = [1, 15]"] ;
123 -> 127 ;
128 [label="gini = 0.0\nsamples = 14\nvalue = [0, 14]"] ;
127 -> 128 ;
129 [label="X[1] <= -1.813\ngini = 0.5\nsamples = 2\nvalue = [1, 1]"] ;
127 -> 129 ;
130 [label="gini = 0.0\nsamples = 1\nvalue = [0, 1]"] ;
129 -> 130 ;
131 [label="gini = 0.0\nsamples = 1\nvalue = [1, 0]"] ;
129 -> 131 ;
132 [label="X[1] <= 1.038\ngini = 0.225\nsamples = 1097\nvalue = [955, 142]"] ;
92 -> 132 ;
133 [label="X[0] <= -0.435\ngini = 0.062\nsamples = 501\nvalue = [485, 16]"] ;
132 -> 133 ;
134 [label="X[1] <= -0.866\ngini = 0.449\nsamples = 44\nvalue = [29, 15]"] ;
133 -> 134 ;
135 [label="gini = 0.0\nsamples = 15\nvalue = [0, 15]"] ;
134 -> 135 ;
136 [label="gini = 0.0\nsamples = 29\nvalue = [29, 0]"] ;
134 -> 136 ;
137 [label="X[0] <= -0.388\ngini = 0.004\nsamples = 457\nvalue = [456, 1]"] ;
133 -> 137 ;
138 [label="X[0] <= -0.393\ngini = 0.219\nsamples = 8\nvalue = [7, 1]"] ;
137 -> 138 ;
139 [label="gini = 0.0\nsamples = 7\nvalue = [7, 0]"] ;
138 -> 139 ;
140 [label="gini = 0.0\nsamples = 1\nvalue = [0, 1]"] ;
138 -> 140 ;
141 [label="gini = 0.0\nsamples = 449\nvalue = [449, 0]"] ;
137 -> 141 ;
142 [label="X[0] <= 1.091\ngini = 0.333\nsamples = 596\nvalue = [470, 126]"] ;
132 -> 142 ;
143 [label="gini = 0.0\nsamples = 245\nvalue = [245, 0]"] ;
142 -> 143 ;
144 [label="X[1] <= 2.7\ngini = 0.46\nsamples = 351\nvalue = [225, 126]"] ;
142 -> 144 ;
145 [label="X[0] <= 2.961\ngini = 0.473\nsamples = 190\nvalue = [73, 117]"] ;
144 -> 145 ;
146 [label="X[1] <= 1.49\ngini = 0.158\nsamples = 127\nvalue = [11, 116]"] ;
145 -> 146 ;
147 [label="X[0] <= 1.313\ngini = 0.424\nsamples = 36\nvalue = [11, 25]"] ;
146 -> 147 ;
148 [label="X[1] <= 1.435\ngini = 0.278\nsamples = 6\nvalue = [5, 1]"] ;
147 -> 148 ;
149 [label="gini = 0.0\nsamples = 4\nvalue = [4, 0]"] ;
148 -> 149 ;
150 [label="X[1] <= 1.455\ngini = 0.5\nsamples = 2\nvalue = [1, 1]"] ;
148 -> 150 ;
151 [label="gini = 0.0\nsamples = 1\nvalue = [0, 1]"] ;
150 -> 151 ;
152 [label="gini = 0.0\nsamples = 1\nvalue = [1, 0]"] ;
150 -> 152 ;
153 [label="X[0] <= 2.744\ngini = 0.32\nsamples = 30\nvalue = [6, 24]"] ;
147 -> 153 ;
154 [label="X[1] <= 1.233\ngini = 0.198\nsamples = 27\nvalue = [3, 24]"] ;
153 -> 154 ;
155 [label="X[0] <= 1.646\ngini = 0.42\nsamples = 10\nvalue = [3, 7]"] ;
154 -> 155 ;
156 [label="gini = 0.444\nsamples = 3\nvalue = [2, 1]"] ;
155 -> 156 ;
157 [label="gini = 0.245\nsamples = 7\nvalue = [1, 6]"] ;
155 -> 157 ;
158 [label="gini = 0.0\nsamples = 17\nvalue = [0, 17]"] ;
154 -> 158 ;
159 [label="gini = 0.0\nsamples = 3\nvalue = [3, 0]"] ;
153 -> 159 ;
160 [label="gini = 0.0\nsamples = 91\nvalue = [0, 91]"] ;
146 -> 160 ;
161 [label="X[0] <= 3.006\ngini = 0.031\nsamples = 63\nvalue = [62, 1]"] ;
145 -> 161 ;
162 [label="X[0] <= 2.99\ngini = 0.375\nsamples = 4\nvalue = [3, 1]"] ;
161 -> 162 ;
163 [label="gini = 0.0\nsamples = 3\nvalue = [3, 0]"] ;
162 -> 163 ;
164 [label="gini = 0.0\nsamples = 1\nvalue = [0, 1]"] ;
162 -> 164 ;
165 [label="gini = 0.0\nsamples = 59\nvalue = [59, 0]"] ;
161 -> 165 ;
166 [label="X[1] <= 2.923\ngini = 0.106\nsamples = 161\nvalue = [152, 9]"] ;
144 -> 166 ;
167 [label="X[0] <= 2.532\ngini = 0.428\nsamples = 29\nvalue = [20, 9]"] ;
166 -> 167 ;
168 [label="X[0] <= 1.529\ngini = 0.48\nsamples = 15\nvalue = [6, 9]"] ;
167 -> 168 ;
169 [label="gini = 0.0\nsamples = 6\nvalue = [6, 0]"] ;
168 -> 169 ;
170 [label="gini = 0.0\nsamples = 9\nvalue = [0, 9]"] ;
168 -> 170 ;
171 [label="gini = 0.0\nsamples = 14\nvalue = [14, 0]"] ;
167 -> 171 ;
172 [label="gini = 0.0\nsamples = 132\nvalue = [132, 0]"] ;
166 -> 172 ;
}